%YAML:1.0
my_nn: !!opencv-ml-ann-mlp
   layer_sizes: !!opencv-matrix
      rows: 1
      cols: 4
      dt: i
      data: [ 4, 5, 5, 1 ]
   activation_function: SIGMOID_SYM
   f_param1: 1.
   f_param2: 1.
   min_val: -9.4999999999999996e-01
   max_val: 9.4999999999999996e-01
   min_val1: -9.7999999999999998e-01
   max_val1: 9.7999999999999998e-01
   training_params:
      train_method: RPROP
      dw0: 1.0000000000000001e-01
      dw_plus: 1.2000000000000000e+00
      dw_minus: 5.0000000000000000e-01
      dw_min: 1.1920928955078125e-07
      dw_max: 50.
      term_criteria: { epsilon:9.9999997764825821e-03, iterations:1000 }
   input_scale: [ 2.7582420495262518e+01, -1.2563037906879799e+00,
       2.4480986610194289e+01, -1.4958808371463492e+00,
       1.9229923544820995e+01, -1.1089626819421516e+00,
       8.5360965934370352e+00, -3.1114077843228163e+00 ]
   output_scale: [ 3.1440593066968416e+00, -1.3967192173004142e-01 ]
   inv_output_scale: [ 3.1806015804791005e-01, 4.4424073500312300e-02 ]
   weights:
      - [ -3.7278129384202288e-02, 3.5737195373520431e-01,
          2.7539237110060100e-01, -4.7620940038622273e-02,
          9.9494083025527730e-02, -4.6888312144273420e-01,
          2.8315943267406857e-01, 1.5557098277582038e-01,
          -1.3409666997020891e-01, 1.0417851503895961e-01,
          -1.2677966572630811e-01, 3.4751494308761327e-01,
          1.9075583102721133e-01, 4.4711317087322316e-01,
          -4.2310673634512724e-01, 5.4161534221515995e-01,
          -5.8046329496886151e-02, -1.7828081509636740e-01,
          4.6641109919519003e-01, 2.0322066559038537e-01,
          4.2585386170532941e-01, -2.9988990982518449e-02,
          -9.9286987961674789e-03, -6.8805169785648476e-02,
          -2.7260627617920241e-01 ]
      - [ -3.7285148694554432e-01, 1.9612937231501237e-01,
          2.4738090719616679e-01, 1.5157824785219626e-01,
          -1.6883225551610315e-01, -1.1210860773464186e-01,
          1.1859579679751679e-01, 4.4878452009795483e-02,
          -1.3786203267838715e-01, 3.0171471969550961e-01,
          3.7719604292275905e-01, -2.7937346173379091e-01,
          7.5835420202280915e-02, -2.5715000800377635e-01,
          -2.8665517988210282e-01, 1.7464479259515525e-01,
          -3.8469734043079490e-02, 2.1761208450467429e-01,
          3.4513039803711981e-02, 3.4760581667057305e-01,
          -9.2488654992210165e-02, -4.7431635110600473e-02,
          9.4293136087082577e-02, 2.9889667166192835e-01,
          2.1519202823571132e-01, -2.0266424123468074e-01,
          2.2819864808036217e-01, -4.2933533519194100e-02,
          -7.5366225314286994e-03, 3.0964563255112248e-01 ]
      - [ -5.2642343785296558e-02, 8.4324355511628168e-01,
          -5.9060702544862742e-01, -4.7618196222450693e-01,
          8.0727644584095726e-01, -2.9759590184410228e-01 ]
