%YAML:1.0
my_nn: !!opencv-ml-ann-mlp
   layer_sizes: !!opencv-matrix
      rows: 1
      cols: 4
      dt: i
      data: [ 4, 5, 5, 1 ]
   activation_function: SIGMOID_SYM
   f_param1: 1.
   f_param2: 1.
   min_val: -9.4999999999999996e-01
   max_val: 9.4999999999999996e-01
   min_val1: -9.7999999999999998e-01
   max_val1: 9.7999999999999998e-01
   training_params:
      train_method: RPROP
      dw0: 1.0000000000000001e-01
      dw_plus: 1.2000000000000000e+00
      dw_minus: 5.0000000000000000e-01
      dw_min: 1.1920928955078125e-07
      dw_max: 50.
      term_criteria: { epsilon:9.9999997764825821e-03, iterations:1000 }
   input_scale: [ 2.7969782796206410e+01, -1.2623117907653985e+00,
       2.4819785128575880e+01, -1.5071944012119258e+00,
       1.9496962778300180e+01, -1.1157281830641601e+00,
       8.4071418677382592e+00, -3.0528330974993994e+00 ]
   output_scale: [ 4.2073053393611000e+00, 4.0010600725654513e+00 ]
   inv_output_scale: [ 2.3768182229242599e-01, -9.5097924914882259e-01 ]
   weights:
      - [ 3.9563412888333170e-03, 8.9201022725869772e-01,
          -1.4858494208988446e-01, 3.6735401327206561e-02,
          4.0182194460642762e-01, 3.4330977858037687e-01,
          1.8642441425014034e-01, -6.6448822787596717e-01,
          -1.6138073011553217e-01, 1.4281482012486052e-02,
          5.9481344601586927e-01, 5.0879745310096991e-01,
          -1.0350309085991623e-01, -6.2827627921923535e-01,
          4.3990139753760293e-01, -7.3647311669258719e-01,
          -7.0340790539019182e-01, 6.3823980507383327e-01,
          7.4704758933802584e-01, 2.7630813986845548e-01,
          -2.0527549199014675e-02, 6.9826986311199865e-02,
          -1.3843223087047093e-01, -3.3587847595225678e-01,
          2.8269798180460992e-01 ]
      - [ -2.1326900954605513e-01, -6.1091909581246839e-01,
          1.1905143299509495e-01, -5.2606609107849178e-01,
          -1.3715997823780318e-01, -5.1838283437152730e-02,
          -5.1847277475447706e-01, 1.8176866143408330e-01,
          -5.6845885715362665e-01, -2.2057373600652458e-01,
          5.2208991721489251e-01, 6.1949146197029781e-01,
          -4.8623243043255576e-01, 1.9003399066998297e-01,
          -1.7426340318743189e-01, 5.7580468114393069e-01,
          3.3904212341854362e-01, -5.6423819501621975e-01,
          5.3472326583456919e-01, -9.9056558018009971e-02,
          1.8521269462438444e-01, -2.3127454404421288e-01,
          3.2954946898040266e-01, 1.0158577660329532e-01,
          2.6154967544976959e-01, -3.7102078354660667e-01,
          5.4614529609279851e-03, 8.0620513451394024e-02,
          -1.9000708791311488e-01, 3.3789820117528041e-01 ]
      - [ 5.5089775662741458e-01, 7.5866733254260443e-01,
          -7.6185648509297166e-01, 1.2480297009449464e+00,
          -9.9823283469434407e-02, -7.9485101172776984e-01 ]
