%YAML:1.0
my_nn: !!opencv-ml-ann-mlp
   layer_sizes: !!opencv-matrix
      rows: 1
      cols: 4
      dt: i
      data: [ 4, 5, 5, 1 ]
   activation_function: SIGMOID_SYM
   f_param1: 1.
   f_param2: 1.
   min_val: -9.4999999999999996e-01
   max_val: 9.4999999999999996e-01
   min_val1: -9.7999999999999998e-01
   max_val1: 9.7999999999999998e-01
   training_params:
      train_method: RPROP
      dw0: 1.0000000000000001e-01
      dw_plus: 1.2000000000000000e+00
      dw_minus: 5.0000000000000000e-01
      dw_min: 1.1920928955078125e-07
      dw_max: 50.
      term_criteria: { epsilon:9.9999997764825821e-03, iterations:1000 }
   input_scale: [ 3.0672176896393011e+00, 2.1565375386289918e+00,
       3.1703485797994366e+00, 2.0142703921672478e+00,
       2.9786587895188270e+00, 2.1119637115974799e+00,
       2.4882197341225494e+00, 4.6925777695936484e-02 ]
   output_scale: [ 1.0510583614048206e+00, -2.5728344917296182e-04 ]
   inv_output_scale: [ 9.5142195402301244e-01, 2.4478512194991975e-04 ]
   weights:
      - [ -4.2159338757990567e-01, 8.4884872124087274e-01,
          2.5341162878451895e-01, -8.3225527184830306e-01,
          -3.3773674020096062e-01, -2.6894233072002205e-01,
          2.6474467236853239e-01, 7.4873150005007771e-01,
          -5.8072770280533825e-01, 9.7489288748662736e-04,
          1.3211947953288380e-01, 2.5135779427496585e-01,
          1.0154539559161300e+00, -2.9176321715268849e-01,
          -1.7088177507028171e-01, -4.8929519783281150e-01,
          -6.6725374540262539e-01, -5.1077382718168873e-01,
          1.3704435189027608e-01, -3.3440659184127103e-01,
          9.5552250324512256e-01, 4.1879559509620345e-01,
          6.3079561215790014e-01, -3.6480546069590103e-01,
          -1.8215702435538941e-01 ]
      - [ 1.7868580899373046e-01, 1.7519138932320835e-01,
          -2.0836044108234322e-01, -4.7490163028145771e-01,
          6.6252634807695343e-01, 4.6425771246926328e-01,
          9.3540192527267785e-01, -8.4979427637255933e-01,
          -8.3549646778488507e-01, 4.5235999551798967e-01,
          8.7910851622522468e-01, 5.1265958733797889e-01,
          -7.4572504710038168e-01, -7.7177068493874845e-01,
          5.2121068038592944e-01, -3.8871983288071865e-01,
          -4.9945765822155158e-01, 3.7689935949812842e-01,
          2.0692073472337416e-01, 2.8167542264680434e-01,
          5.8884827642949458e-02, 1.8100860683304229e-01,
          -2.0778241888726411e-02, 2.0894048227153425e-01,
          3.3911094819838464e-02, 3.7158588147147292e-01,
          7.5448014659379659e-01, -5.1026559678890027e-01,
          -5.5520554601394967e-01, 4.7494303621410050e-01 ]
      - [ -6.5856129353820936e-01, -1.3782656083140132e+00,
          7.0735159210213672e-01, 4.3554631507095670e-01,
          -2.4745073508344459e-01, 1.6163143644515554e-01 ]
