%YAML:1.0
my_nn: !!opencv-ml-ann-mlp
   layer_sizes: !!opencv-matrix
      rows: 1
      cols: 4
      dt: i
      data: [ 2, 5, 5, 1 ]
   activation_function: SIGMOID_SYM
   f_param1: 1.
   f_param2: 1.
   min_val: -9.4999999999999996e-01
   max_val: 9.4999999999999996e-01
   min_val1: -9.7999999999999998e-01
   max_val1: 9.7999999999999998e-01
   training_params:
      train_method: RPROP
      dw0: 1.0000000000000001e-01
      dw_plus: 1.2000000000000000e+00
      dw_minus: 5.0000000000000000e-01
      dw_min: 1.1920928955078125e-07
      dw_max: 50.
      term_criteria: { epsilon:9.9999997764825821e-03, iterations:1000 }
   input_scale: [ 2.3145502716031885e+00, -1.6201851935711806e+00,
       1.5944099034148176e+00, -1.0788840560663273e+00 ]
   output_scale: [ 1.7783263482545550e+00, 2.7027999758720398e+00 ]
   inv_output_scale: [ 5.6232648241505834e-01, -1.5198560031036288e+00 ]
   weights:
      - [ -4.7942329171771858e-01, 2.6050960669996848e-02,
          6.0038286117809581e-01, 8.0240811500098375e-01,
          1.2567239302929802e+00, 6.7897670828228140e-01,
          8.3165096066999666e-01, 9.1161713882190432e-01,
          7.0959188499901638e-01, 4.4967606970701962e-01,
          1.1890965523149299e-01, -5.4692970228433846e-01,
          -3.6984777780451977e-02, -3.7251719943433426e-01,
          -4.8976363272839851e-01 ]
      - [ 1.6698661472898155e-01, 4.0769176603483191e-02,
          2.8190540093660255e-01, 2.4843207297242528e-01,
          -1.9445687885779570e-01, -3.0016403320693824e-01,
          5.8199142078398036e-01, 4.1650831738342992e-01,
          -2.2518052363335081e-01, -4.2111892968038261e-01,
          -4.3307526932495038e-01, 4.5555693483094756e-01,
          5.0771564882441811e-01, -4.1738137520436863e-01,
          -9.3406663615358737e-02, -1.6786881217174968e-01,
          5.7772682463428349e-01, 4.3154620571199437e-01,
          -5.6599160031578444e-01, 4.6101590536388189e-02,
          -6.9964289491087961e-01, 3.6949399635427199e-01,
          4.5675572856445100e-02, -4.2537547514077229e-01,
          -5.1172926454079237e-01, -3.0237535595146559e-01,
          -2.9023520275183801e-01, -6.9495785220787476e-02,
          7.6187837614640597e-02, -9.2121967573170524e-02 ]
      - [ -6.9822059775998291e-01, 1.0843784507206515e+00,
          9.2241538417839330e-01, -4.6742089583525448e-01,
          -9.1599028666169743e-02, -4.1112470592471795e-01 ]
